%YAML:1.0
my_nb: !!opencv-ml-bayesian
   var_count: 3
   var_all: 3
   cls_labels: !!opencv-matrix
      rows: 1
      cols: 2
      dt: i
      data: [ 0, 1 ]
   count:
      - !!opencv-matrix
         rows: 1
         cols: 3
         dt: i
         data: [ 73960, 73960, 73960 ]
      - !!opencv-matrix
         rows: 1
         cols: 3
         dt: i
         data: [ 2368, 2368, 2368 ]
   sum:
      - !!opencv-matrix
         rows: 1
         cols: 3
         dt: d
         data: [ 1.1046715885114670e+05, 1.1606668415665627e+05,
             1.1619945660889149e+05 ]
      - !!opencv-matrix
         rows: 1
         cols: 3
         dt: d
         data: [ 3.3873490509986877e+03, 3.1520314140319824e+03,
             2.4757922005653381e+03 ]
   productsum:
      - !!opencv-matrix
         rows: 3
         cols: 3
         dt: d
         data: [ 1.6636825188425710e+05, 1.7362247733846653e+05,
             1.7486418470293243e+05, 1.7362247733846653e+05,
             1.8327465831382776e+05, 1.8242021598977176e+05,
             1.7486418470293243e+05, 1.8242021598977176e+05,
             1.8388800927893046e+05 ]
      - !!opencv-matrix
         rows: 3
         cols: 3
         dt: d
         data: [ 5.1308492268102709e+03, 4.8434875124708615e+03,
             3.5192723511327813e+03, 4.8434875124708615e+03,
             4.5884265719823270e+03, 3.2691285958218132e+03,
             3.5192723511327813e+03, 3.2691285958218132e+03,
             2.5906906118250076e+03 ]
   avg:
      - !!opencv-matrix
         rows: 1
         cols: 3
         dt: d
         data: [ 1.4936067989608801e+00, 1.5693169842706363e+00,
             1.5711121769725729e+00 ]
      - !!opencv-matrix
         rows: 1
         cols: 3
         dt: d
         data: [ 1.4304683492393107e+00, 1.3310943471418846e+00,
             1.0455203549684704e+00 ]
   inv_eigen_values:
      - !!opencv-matrix
         rows: 1
         cols: 3
         dt: d
         data: [ 2.7459838885324547e+01, 6.6556432354121739e+01,
             3.0757326730135278e+03 ]
      - !!opencv-matrix
         rows: 1
         cols: 3
         dt: d
         data: [ 3.4823484637317592e+00, 4.5608901079483767e+03,
             2.4713317597684789e+04 ]
   cov_rotate_mats:
      - !!opencv-matrix
         rows: 3
         cols: 3
         dt: d
         data: [ 7.1099165049410595e-01, 1.4941372351642662e-01,
             6.8714366194604737e-01, -1.7892434747404876e-02,
             9.8069361126275567e-01, -1.9473033047582716e-01,
             -7.0297278304816113e-01, 1.2615696593280859e-01,
             6.9993834459911641e-01 ]
      - !!opencv-matrix
         rows: 3
         cols: 3
         dt: d
         data: [ 6.4780599414284545e-01, 7.6010339795862869e-01,
             -5.0894187923046702e-02, 3.5855202943593228e-01,
             -2.4527075107083202e-01, 9.0071232969052017e-01,
             6.7215164668397120e-01, -6.0173506053818770e-01,
             -4.3142447865081701e-01 ]
   c: !!opencv-matrix
      rows: 1
      cols: 2
      dt: d
      data: [ -1.5542073147206532e+01, -1.9788077545960594e+01 ]
