%YAML:1.0
my_nb: !!opencv-ml-bayesian
   var_count: 3
   var_all: 3
   cls_labels: !!opencv-matrix
      rows: 1
      cols: 2
      dt: i
      data: [ 0, 1 ]
   count:
      - !!opencv-matrix
         rows: 1
         cols: 3
         dt: i
         data: [ 155672, 155672, 155672 ]
      - !!opencv-matrix
         rows: 1
         cols: 3
         dt: i
         data: [ 5453, 5453, 5453 ]
   sum:
      - !!opencv-matrix
         rows: 1
         cols: 3
         dt: d
         data: [ 2.2982229084515572e+05, 2.3439231040966511e+05,
             2.3476115341424942e+05 ]
      - !!opencv-matrix
         rows: 1
         cols: 3
         dt: d
         data: [ 1.0269317937135696e+04, 8.3765843809843063e+03,
             6.4961687015295029e+03 ]
   productsum:
      - !!opencv-matrix
         rows: 3
         cols: 3
         dt: d
         data: [ 3.4083536847712914e+05, 3.4583235795357177e+05,
             3.4805871853670228e+05, 3.4583235795357177e+05,
             3.5443146696809970e+05, 3.5307332002907980e+05,
             3.4805871853670228e+05, 3.5307332002907980e+05,
             3.5557580411631800e+05 ]
      - !!opencv-matrix
         rows: 3
         cols: 3
         dt: d
         data: [ 1.9350663043400782e+04, 1.5817769455332475e+04,
             1.2217185419821551e+04, 1.5817769455332475e+04,
             1.3035778912478634e+04, 9.9113354611264003e+03,
             1.2217185419821551e+04, 9.9113354611264003e+03,
             7.7689472466737670e+03 ]
   avg:
      - !!opencv-matrix
         rows: 1
         cols: 3
         dt: d
         data: [ 1.4763238787010877e+00, 1.5056806002984808e+00,
             1.5080499602642057e+00 ]
      - !!opencv-matrix
         rows: 1
         cols: 3
         dt: d
         data: [ 1.8832418736724181e+00, 1.5361423768538982e+00,
             1.1913017974563549e+00 ]
   inv_eigen_values:
      - !!opencv-matrix
         rows: 1
         cols: 3
         dt: d
         data: [ 4.9678136916571042e+01, 1.1036086113119258e+02,
             2.8383404677463991e+03 ]
      - !!opencv-matrix
         rows: 1
         cols: 3
         dt: d
         data: [ 2.6398633339042846e+01, 2.1018702160980515e+03,
             4.0019262208109380e+04 ]
   cov_rotate_mats:
      - !!opencv-matrix
         rows: 3
         cols: 3
         dt: d
         data: [ 6.7492251318179119e-01, -2.5735190446098360e-01,
             6.9155592577222524e-01, 2.5179762354718749e-01,
             9.6127912852893860e-01, 1.1198389987240713e-01,
             -6.9359754755648018e-01, 9.8551683521638386e-02,
             7.1358952325457181e-01 ]
      - !!opencv-matrix
         rows: 3
         cols: 3
         dt: d
         data: [ 2.2800310744694960e-01, 9.0165901656972924e-01,
             -3.6745829808706626e-01, 2.7658335821502816e-01,
             3.0187354002435257e-01, 9.1234533581953647e-01,
             9.3355033552188926e-01, -3.0965042172048474e-01,
             -1.8055577358615196e-01 ]
   c: !!opencv-matrix
      rows: 1
      cols: 2
      dt: d
      data: [ -1.6560295305507772e+01, -2.1521011220215655e+01 ]
